FANN_FLO_2.1
num_layers=3
learning_rate=0.010000
connection_rate=1.000000
network_type=0
learning_momentum=0.000000
training_algorithm=2
train_error_function=1
train_stop_function=0
cascade_output_change_fraction=0.010000
quickprop_decay=-0.000100
quickprop_mu=1.750000
rprop_increase_factor=1.200000
rprop_decrease_factor=0.500000
rprop_delta_min=0.000000
rprop_delta_max=50.000000
rprop_delta_zero=0.100000
cascade_output_stagnation_epochs=12
cascade_candidate_change_fraction=0.010000
cascade_candidate_stagnation_epochs=12
cascade_max_out_epochs=150
cascade_max_cand_epochs=150
cascade_num_candidate_groups=2
bit_fail_limit=3.49999999999999977796e-01
cascade_candidate_limit=1.00000000000000000000e+03
cascade_weight_multiplier=4.00000000000000022204e-01
cascade_activation_functions_count=10
cascade_activation_functions=3 5 7 8 10 11 14 15 16 17 
cascade_activation_steepnesses_count=4
cascade_activation_steepnesses=2.50000000000000000000e-01 5.00000000000000000000e-01 7.50000000000000000000e-01 1.00000000000000000000e+00 
layer_sizes=37 7 2 
scale_included=0
neurons (num_inputs, activation_function, activation_steepness)=(0, 0, 0.00000000000000000000e+00) (0, 0, 0.00000000000000000000e+00) (0, 0, 0.00000000000000000000e+00) (0, 0, 0.00000000000000000000e+00) (0, 0, 0.00000000000000000000e+00) (0, 0, 0.00000000000000000000e+00) (0, 0, 0.00000000000000000000e+00) (0, 0, 0.00000000000000000000e+00) (0, 0, 0.00000000000000000000e+00) (0, 0, 0.00000000000000000000e+00) (0, 0, 0.00000000000000000000e+00) (0, 0, 0.00000000000000000000e+00) (0, 0, 0.00000000000000000000e+00) (0, 0, 0.00000000000000000000e+00) (0, 0, 0.00000000000000000000e+00) (0, 0, 0.00000000000000000000e+00) (0, 0, 0.00000000000000000000e+00) (0, 0, 0.00000000000000000000e+00) (0, 0, 0.00000000000000000000e+00) (0, 0, 0.00000000000000000000e+00) (0, 0, 0.00000000000000000000e+00) (0, 0, 0.00000000000000000000e+00) (0, 0, 0.00000000000000000000e+00) (0, 0, 0.00000000000000000000e+00) (0, 0, 0.00000000000000000000e+00) (0, 0, 0.00000000000000000000e+00) (0, 0, 0.00000000000000000000e+00) (0, 0, 0.00000000000000000000e+00) (0, 0, 0.00000000000000000000e+00) (0, 0, 0.00000000000000000000e+00) (0, 0, 0.00000000000000000000e+00) (0, 0, 0.00000000000000000000e+00) (0, 0, 0.00000000000000000000e+00) (0, 0, 0.00000000000000000000e+00) (0, 0, 0.00000000000000000000e+00) (0, 0, 0.00000000000000000000e+00) (0, 0, 0.00000000000000000000e+00) (37, 4, 5.00000000000000000000e-01) (37, 4, 5.00000000000000000000e-01) (37, 4, 5.00000000000000000000e-01) (37, 4, 5.00000000000000000000e-01) (37, 4, 5.00000000000000000000e-01) (37, 4, 5.00000000000000000000e-01) (0, 0, 0.00000000000000000000e+00) (7, 6, 5.00000000000000000000e-01) (0, 6, 0.00000000000000000000e+00) 
connections (connected_to_neuron, weight)=(0, 2.40162669353372160153e-01) (1, -3.31397395238395564565e-01) (2, 3.86564298097536229726e-01) (3, -7.61248183218157570273e-01) (4, -9.46228772866398393226e-01) (5, -2.66219646843310175921e-01) (6, -1.54888457305000670772e-01) (7, -1.58410312809831921310e-01) (8, -2.53794585494046709417e-01) (9, -1.58314253994475059861e-02) (10, -3.99377779330818971637e-01) (11, -2.06653418211392103654e-01) (12, 1.24954087119509327231e+00) (13, 8.97870944014999672333e-01) (14, -5.23018394530150865229e-01) (15, 1.54654712279939515751e-01) (16, -1.30362166560098718948e-01) (17, 7.31529028205388232031e-02) (18, -9.94104475184703212376e-02) (19, 9.68113684130559037921e-02) (20, -5.65742442175861739995e-02) (21, 1.84863026106852151864e-01) (22, -1.56501633706556758652e-01) (23, 1.20616878512235528587e-01) (24, 3.46262739616116776986e+00) (25, 1.72287491332787978671e-01) (26, 6.72329893144965606844e-02) (27, -3.48249145421716976845e-01) (28, -1.94818031654187118207e+00) (29, -3.18632946875053113533e-01) (30, -1.24222536819121001650e-01) (31, -2.21291297024413136096e-01) (32, -5.73770689800683020287e-01) (33, 3.17422921558514550822e-02) (34, -6.92589512757857517222e-01) (35, -1.72068620374010938789e-01) (36, -8.98622783365794575161e+00) (0, 4.27924131649895511664e-01) (1, 1.42155440308618374878e-01) (2, 2.74065158631656258237e-01) (3, -4.92641190877581014451e-01) (4, -4.52874476182769380994e-01) (5, 1.97631144090237909072e-01) (6, -1.04465533719821979108e-01) (7, -4.53344631451983171022e-02) (8, -1.50305726704068026711e-01) (9, 3.96259363774860096097e-01) (10, 6.21824454562587072837e-02) (11, 1.07866900866184084462e-01) (12, -5.55802990889141743103e-02) (13, -1.43754695350028244283e-01) (14, 1.71165780466891598310e-01) (15, -1.42183655896522403994e-02) (16, -2.82146535428688706448e-02) (17, -1.47227135230028095825e-02) (18, 1.75254856395194516527e-02) (19, -1.94015925689100393603e-02) (20, 1.08711986197869946158e-04) (21, -1.41059278142028395736e-03) (22, 3.22412257382600868361e-03) (23, -1.18871711469242021669e-02) (24, 6.38537480023532444395e-02) (25, 1.86145825719458812841e-01) (26, 2.97199112859452829749e-01) (27, -5.22195731462992251970e-01) (28, -7.00748597917189353090e-01) (29, 2.59702386029360632325e-01) (30, -1.47113902996933859635e-01) (31, -6.42745791675265049081e-02) (32, -2.04764975239100033289e-01) (33, 4.42490890023015170929e-01) (34, 1.46902392479333759878e-01) (35, 2.12086284754445214551e-01) (36, -4.48335734988704437409e-01) (0, 2.26416517401888839345e-01) (1, -3.50393352367744936871e-01) (2, 1.30268114202770823873e+00) (3, -2.12774072057668461877e-01) (4, 8.03333132765224222638e-01) (5, 6.39498793946607912986e-01) (6, 5.15561972536992763061e-01) (7, 1.08277969885564173680e+00) (8, -5.19220908189738761251e-01) (9, -1.11783141947539266248e+00) (10, -3.32981573050843249195e-01) (11, -3.91983775781045151732e-01) (12, -1.06174047316743891400e+00) (13, 3.39316593523353304818e-01) (14, -1.08190949895920529578e+00) (15, 9.29724484654536720285e-01) (16, 5.02563680814462065971e-02) (17, -1.87067266023977329947e-01) (18, -7.13139712912018303159e-02) (19, -4.90443172915747127583e-02) (20, 5.31434477513206063315e-02) (21, -3.48344864335171755521e-01) (22, 3.81925654282678272988e-01) (23, -8.24534087692815713388e-03) (24, -8.68343412632198163870e-01) (25, -1.32428268300925244816e+00) (26, 2.34921624281284424640e+00) (27, -1.37747564818578083212e+00) (28, 1.41437424639539188753e+00) (29, 9.63061265274155364757e-01) (30, 8.32921052785150939357e-01) (31, 1.73263185482004611337e+00) (32, -9.11296916028135894905e-01) (33, -1.22552576184181072350e+00) (34, -1.06244606032427935105e+00) (35, -6.07604193355229305062e-01) (36, -5.30810539863669372806e+00) (0, 5.72900524804347832664e-02) (1, -1.50000000000000000000e+03) (2, -1.50000000000000000000e+03) (3, 1.41447511638909622889e+03) (4, -1.50000000000000000000e+03) (5, -1.50000000000000000000e+03) (6, -1.50000000000000000000e+03) (7, 1.50000000000000000000e+03) (8, -2.52543748692942604528e-01) (9, 1.50000000000000000000e+03) (10, 1.50000000000000000000e+03) (11, 1.27374506247784196944e+02) (12, 8.81871163022486292959e+00) (13, 3.17470750850309926250e+01) (14, 5.52050782888967717099e+00) (15, -1.50000000000000000000e+03) (16, 3.56012825292310651548e+02) (17, 1.17041547294514902688e+00) (18, 1.64265795275343107207e+00) (19, 3.59932211402107284925e+01) (20, -1.74295038625884446404e+00) (21, 1.50000000000000000000e+03) (22, -1.15235975898492668534e+01) (23, 9.73592448722782322079e+00) (24, -7.30772004493081994703e-01) (25, 1.50000000000000000000e+03) (26, 1.28302919672466123302e+03) (27, 1.25077106883461738107e+03) (28, -4.67667597275540913415e+02) (29, -1.50000000000000000000e+03) (30, 7.22099129099843839441e+00) (31, -3.20475667868366986824e+00) (32, -5.22881883147112844767e+01) (33, 1.05901738832314563865e+02) (34, 6.63937305962191288700e+01) (35, -7.95059742393067758748e-01) (36, -7.77576413035444033994e+01) (0, 1.72318979920299120145e+00) (1, -7.85478486547254439731e-02) (2, 1.75029944215934957219e-01) (3, -1.47811038239194919575e-03) (4, -1.88749540147754163444e-02) (5, 7.65360107522300298077e-02) (6, -2.58356790752140019762e-02) (7, 5.21912584705841384181e-02) (8, 7.70269062439484369920e-02) (9, -8.71896047176059924011e-02) (10, 4.25693536164368363517e-02) (11, 7.46837938340711663537e-03) (12, 3.22012181837621147551e-01) (13, 8.67510347930769004643e-02) (14, -3.47988189166219263893e-02) (15, 1.32068726048669583123e-02) (16, 3.91429568586263432195e-02) (17, -3.34196025928022930063e-02) (18, 2.95508489655897932380e-02) (19, -2.42246315839735118502e-02) (20, 8.84675710394959395610e-03) (21, 3.58474642474838206541e-02) (22, -9.18660191518834261248e-03) (23, 1.93019590812849818270e-03) (24, 1.49923720031654261753e+00) (25, -2.10832873368952608550e-02) (26, 1.82086942368978127460e-01) (27, -9.03336297816198091626e-02) (28, 3.33229904943617011304e-02) (29, 1.79551818226024784142e-01) (30, -1.61467306042371305796e-01) (31, 1.14230769900045894816e-01) (32, 1.96681272839048515433e-01) (33, -2.20860877606406658114e-01) (34, 1.95368715574691459436e-01) (35, -7.75163703828356531744e-02) (36, -1.63147261123373468195e+01) (0, 1.11669540175726944575e+00) (1, -9.78135502094103492787e-01) (2, -9.74990300454942615538e-01) (3, 8.76749108446278208051e-02) (4, 3.63305384632129968470e-01) (5, -7.09782702278017874065e-01) (6, 1.08852348520729835801e-01) (7, -2.59737361545147260600e-01) (8, 7.16736072180603617232e-02) (9, -2.79797696309772414569e-01) (10, 1.16660394661041916242e-01) (11, -3.92367904786178556265e-01) (12, 2.94773463770102406301e+00) (13, 2.99562971992863635862e-01) (14, -5.31912511036957247335e-01) (15, 4.09246516499111104292e-02) (16, -2.43285465614330953521e-01) (17, 1.17073592553817384943e-01) (18, -8.90097949454032692784e-03) (19, 1.23621907126248764541e-01) (20, -6.49137126937143760230e-02) (21, 2.30255935996715663250e-02) (22, -7.49541792512918997327e-02) (23, 4.25089888049964906291e-02) (24, 2.51401820259636310517e-01) (25, -8.28933945935311777831e-01) (26, -1.18790977224030092074e+00) (27, 3.25463873061010544596e-01) (28, 1.16999943132644890209e-01) (29, -7.92081975380415470589e-01) (30, 2.25625145666771886876e-01) (31, -4.45094238526655805455e-01) (32, -2.83547890425395812675e-02) (33, -2.31093056252533984862e-01) (34, 3.03587205306007600070e-02) (35, -4.13773480965106799090e-01) (36, -4.66461681925527482662e+00) (37, 1.04308499536423804344e+00) (38, 1.25338072271305467353e+00) (39, 4.49784982520039788856e-01) (40, -8.23741626723615977257e-02) (41, 5.65903332372805234485e+00) (42, 1.00106769813177476358e+00) (43, -1.30936664718715833899e+00) 
