FANN_FLO_2.1
num_layers=3
learning_rate=0.010000
connection_rate=1.000000
network_type=0
learning_momentum=0.000000
training_algorithm=2
train_error_function=1
train_stop_function=0
cascade_output_change_fraction=0.010000
quickprop_decay=-0.000100
quickprop_mu=1.750000
rprop_increase_factor=1.200000
rprop_decrease_factor=0.500000
rprop_delta_min=0.000000
rprop_delta_max=50.000000
rprop_delta_zero=0.100000
cascade_output_stagnation_epochs=12
cascade_candidate_change_fraction=0.010000
cascade_candidate_stagnation_epochs=12
cascade_max_out_epochs=150
cascade_max_cand_epochs=150
cascade_num_candidate_groups=2
bit_fail_limit=3.49999999999999977796e-01
cascade_candidate_limit=1.00000000000000000000e+03
cascade_weight_multiplier=4.00000000000000022204e-01
cascade_activation_functions_count=10
cascade_activation_functions=3 5 7 8 10 11 14 15 16 17 
cascade_activation_steepnesses_count=4
cascade_activation_steepnesses=2.50000000000000000000e-01 5.00000000000000000000e-01 7.50000000000000000000e-01 1.00000000000000000000e+00 
layer_sizes=37 7 2 
scale_included=0
neurons (num_inputs, activation_function, activation_steepness)=(0, 0, 0.00000000000000000000e+00) (0, 0, 0.00000000000000000000e+00) (0, 0, 0.00000000000000000000e+00) (0, 0, 0.00000000000000000000e+00) (0, 0, 0.00000000000000000000e+00) (0, 0, 0.00000000000000000000e+00) (0, 0, 0.00000000000000000000e+00) (0, 0, 0.00000000000000000000e+00) (0, 0, 0.00000000000000000000e+00) (0, 0, 0.00000000000000000000e+00) (0, 0, 0.00000000000000000000e+00) (0, 0, 0.00000000000000000000e+00) (0, 0, 0.00000000000000000000e+00) (0, 0, 0.00000000000000000000e+00) (0, 0, 0.00000000000000000000e+00) (0, 0, 0.00000000000000000000e+00) (0, 0, 0.00000000000000000000e+00) (0, 0, 0.00000000000000000000e+00) (0, 0, 0.00000000000000000000e+00) (0, 0, 0.00000000000000000000e+00) (0, 0, 0.00000000000000000000e+00) (0, 0, 0.00000000000000000000e+00) (0, 0, 0.00000000000000000000e+00) (0, 0, 0.00000000000000000000e+00) (0, 0, 0.00000000000000000000e+00) (0, 0, 0.00000000000000000000e+00) (0, 0, 0.00000000000000000000e+00) (0, 0, 0.00000000000000000000e+00) (0, 0, 0.00000000000000000000e+00) (0, 0, 0.00000000000000000000e+00) (0, 0, 0.00000000000000000000e+00) (0, 0, 0.00000000000000000000e+00) (0, 0, 0.00000000000000000000e+00) (0, 0, 0.00000000000000000000e+00) (0, 0, 0.00000000000000000000e+00) (0, 0, 0.00000000000000000000e+00) (0, 0, 0.00000000000000000000e+00) (37, 4, 5.00000000000000000000e-01) (37, 4, 5.00000000000000000000e-01) (37, 4, 5.00000000000000000000e-01) (37, 4, 5.00000000000000000000e-01) (37, 4, 5.00000000000000000000e-01) (37, 4, 5.00000000000000000000e-01) (0, 0, 0.00000000000000000000e+00) (7, 6, 5.00000000000000000000e-01) (0, 6, 0.00000000000000000000e+00) 
connections (connected_to_neuron, weight)=(0, 3.09221522478387300659e-01) (1, -1.05203342877463179583e+00) (2, 4.75203798889601958244e-01) (3, -7.71704110688722022537e-01) (4, -2.70538570771777397983e-01) (5, 1.74270060205325150182e-01) (6, 1.00950705644422350504e-01) (7, 1.12747435171084237071e-01) (8, 1.63448800505707730890e-01) (9, -2.25443473483865036711e-01) (10, 3.21939977315121583779e-01) (11, -9.85476528165674242610e-02) (12, 6.89014207152941621226e-02) (13, -1.11685731950846300897e-01) (14, -1.84881306217755427002e-02) (15, 1.57999534074231395842e-01) (16, 3.59637862685749029601e-02) (17, -1.28456762095687987424e-01) (18, 6.09121819280404597219e-02) (19, -7.01077345938629636901e-02) (20, 6.90283085149424879834e-02) (21, -1.34679599858359717174e-02) (22, 3.23530150740050786995e-02) (23, -5.95702209119872583970e-03) (24, 3.46434605410181362117e+00) (25, -1.58890869325331984818e+00) (26, 1.11147754774343310302e+00) (27, -1.49677712689883302133e+00) (28, -6.55968314359913984291e-01) (29, 5.78173176956992218578e-01) (30, 6.22570850457289104440e-02) (31, 1.76585668534117085082e-01) (32, 6.58402917371806589708e-02) (33, -1.04360159210742847735e-01) (34, 2.16110886453639239324e-01) (35, -8.32382370619314942983e-02) (36, -4.33846475335966541564e+00) (0, 6.30495791546621942025e-01) (1, -8.07058207743495403808e-02) (2, 2.41077221688082071749e-01) (3, -8.49712143303269495931e-02) (4, 4.49578741280731372654e-03) (5, 1.73571612406449721222e-01) (6, -2.31196904599954261572e-01) (7, -7.64465062914443244102e-02) (8, 1.39332686819571682085e-02) (9, -1.17748693186842390279e-01) (10, 2.25613757532074299395e-01) (11, 1.05685704077463690082e-02) (12, -1.66293678878190354098e+00) (13, 5.39361785527418396979e-02) (14, -1.07705863475835314502e-01) (15, 1.04366859740013459557e-01) (16, 1.07889379976280078144e-01) (17, -2.91446599329538424961e-02) (18, 6.37966399905164766038e-02) (19, -5.19320159519845031548e-02) (20, 2.07096939620301408180e-02) (21, 2.96991784528420690870e-02) (22, 8.63988699483039107596e-03) (23, -2.82060885613744788403e-02) (24, -2.88079385176822855286e-01) (25, -1.28501313038246700593e+00) (26, 7.19613796151331142070e-01) (27, -7.70078949724914196828e-01) (28, 2.73351235186857499659e-01) (29, -3.92520192080859572914e-02) (30, -6.52504093178211119763e-01) (31, -3.56108316999637908307e-01) (32, 3.18299355428467267703e-01) (33, -8.59720832582629101992e-01) (34, 6.96952511323007950494e-01) (35, -4.76549821277960139465e-01) (36, -9.70595276659654082607e+00) (0, 1.35956785684545122805e+00) (1, -6.84951068860148882395e-03) (2, 1.12778740730360246824e-01) (3, 5.86698256816243282619e-02) (4, -5.46146087466308979841e-02) (5, -8.11592875116787606550e-04) (6, 1.77094373994782644521e-02) (7, 2.51677672072757284416e-02) (8, 7.63045235683937894677e-02) (9, -3.49546099819467576131e-02) (10, -5.96739589495241806727e-03) (11, 3.23868909950356387295e-02) (12, 6.67656695582055759175e-01) (13, 9.73160513857069531252e-02) (14, -4.95571350065737020740e-03) (15, 2.75920813436826128234e-03) (16, 2.41321809106900993236e-02) (17, -4.12444190616033726227e-02) (18, 3.32548963443499157044e-02) (19, -1.59998811657035590328e-02) (20, -2.98981084535890253434e-03) (21, 2.95042774714632978494e-02) (22, -1.95176196230983506341e-02) (23, 2.37393878505048443184e-02) (24, 1.41782539890733594312e+00) (25, 2.95003980556471923080e-01) (26, -2.89000567131969983425e-02) (27, 1.44619251945065585563e-01) (28, -1.16130928201836847169e-01) (29, 1.48641649851526686660e-02) (30, 4.79323157694669377271e-02) (31, 9.07628608212603382732e-02) (32, 1.27398878010747701461e-01) (33, -7.39240200135878825632e-03) (34, 7.15629142343995709730e-03) (35, 7.28112803383106632626e-02) (36, -1.32919879929247599648e+01) (0, -4.25712656295852212573e-02) (1, 2.54780556286147152889e+00) (2, -9.15949852038176359770e-01) (3, -1.46473815935399143129e+00) (4, 9.48070367157648752343e-02) (5, 9.03716718343653191425e-01) (6, -3.50225548397490371588e-01) (7, 8.41462408216891999402e-05) (8, -2.91935951824619892292e-02) (9, -9.93529343881683568718e-01) (10, -6.29778694648566284009e-01) (11, 4.80099789404936083681e-01) (12, 1.00171804844861611627e+01) (13, 2.39353737575710967533e+00) (14, -2.19555143504231642382e+00) (15, 1.68062295857057408810e+00) (16, -3.76706348304066407362e-01) (17, 3.63245322107965507019e-01) (18, -3.17540905339213086478e-01) (19, 2.84583671341179067493e-01) (20, -3.54752406116851548568e-01) (21, -1.01093941817165161590e-01) (22, 5.96958649994807744044e-01) (23, 3.39861059467835291414e-01) (24, 7.24230246012902839636e-02) (25, 1.92580363831078571479e+00) (26, -2.38379121279152883517e+00) (27, 7.33967611828719029843e-02) (28, -5.35618762304918893946e-01) (29, 2.78977640683792493803e+00) (30, -1.86055110447385008143e+00) (31, 7.46150738120271550535e-01) (32, -1.23130885902158193623e+00) (33, -8.19447921580512939066e-01) (34, -1.36325634384104010799e+00) (35, 1.31622921757937416665e+00) (36, -2.58196008424145020399e+01) (0, 1.31650503550251318785e+00) (1, -1.06101075489470653146e+00) (2, -9.91459401289777164656e-01) (3, 2.00926952571927941449e-01) (4, 5.51107098637487191617e-01) (5, -7.40027593597498589695e-01) (6, 1.58349203755546424910e-01) (7, -1.64023226473939964798e-01) (8, 5.40031857969630740834e-02) (9, -3.63767480154685962646e-01) (10, 7.37047306470236945897e-02) (11, -4.80728036210938625139e-01) (12, 3.30289860809233282168e+00) (13, -1.71104285528256598245e-03) (14, -3.94787790407947869475e-01) (15, -7.46118160803150159976e-02) (16, -2.34575197174352850782e-01) (17, 1.69576764587057088329e-01) (18, -6.56348723722136873082e-02) (19, 1.37506573239965790290e-01) (20, -8.75372087462600034780e-02) (21, -8.12171732165306234363e-03) (22, -1.01502972306354105614e-01) (23, 5.25822724770984295528e-03) (24, 1.97911000637229939070e-01) (25, -5.99037189725571739274e-01) (26, -1.35207417020544773401e+00) (27, 5.91296777828152597678e-01) (28, 2.64931378020709706878e-01) (29, -6.68026757604565868398e-01) (30, 2.02510501897452760423e-01) (31, -1.93809242178559021363e-01) (32, -7.17736450837194034369e-02) (33, -2.35237586641024343237e-01) (34, -5.56751860339779955367e-02) (35, -4.88550727815205920734e-01) (36, -5.40516869388774612304e+00) (0, 1.15764788828102282991e+00) (1, 8.27650672621923932937e-01) (2, 5.76599378257402261916e-01) (3, -6.99166318805138908843e-01) (4, -6.59430490660764201394e-01) (5, 4.92769155301373329436e-01) (6, -2.42688846512618100482e-01) (7, 2.25165629760146784877e-01) (8, -8.02685789344070865781e-01) (9, 5.44397565657041337950e-01) (10, -2.89678666666907669303e-01) (11, -1.56834251904424570867e-01) (12, 2.59862306856006253231e-01) (13, 1.01901838425496660268e-01) (14, -5.85047262302906267983e-02) (15, -4.51437706333873006725e-02) (16, -1.88914766452975169120e-01) (17, 1.69287047147377300860e-01) (18, -1.33788809782665663040e-01) (19, 3.21154802414747447825e-02) (20, -6.12474978596582106394e-02) (21, -7.26921382090985057634e-02) (22, 8.81056085839313357644e-02) (23, -4.87231680275059045315e-02) (24, 1.77095889326765942862e+00) (25, 1.48762266678481736015e+00) (26, -3.56444550325512032884e-01) (27, -3.43741784425632412869e-01) (28, -3.83170654455804338134e-01) (29, 5.71773357394781620022e-02) (30, 1.36999727725064940342e-01) (31, 1.32536457299561177825e-01) (32, -9.31463771451087607645e-01) (33, 4.72152186216191815937e-01) (34, -2.36451091947929403769e-01) (35, -2.58888689291462636977e-01) (36, -6.58291139854705598111e+00) (37, 9.37412021589889121742e-01) (38, 3.88824657867120437871e+00) (39, 5.05068968289974407071e+00) (40, 1.28843068287539508354e+00) (41, 1.14517239236759160725e+00) (42, 9.38522300131158782044e-01) (43, -1.29749228928627324819e+00) 
