FANN_FLO_2.1
num_layers=3
learning_rate=0.010000
connection_rate=1.000000
network_type=0
learning_momentum=0.000000
training_algorithm=2
train_error_function=1
train_stop_function=0
cascade_output_change_fraction=0.010000
quickprop_decay=-0.000100
quickprop_mu=1.750000
rprop_increase_factor=1.200000
rprop_decrease_factor=0.500000
rprop_delta_min=0.000000
rprop_delta_max=50.000000
rprop_delta_zero=0.100000
cascade_output_stagnation_epochs=12
cascade_candidate_change_fraction=0.010000
cascade_candidate_stagnation_epochs=12
cascade_max_out_epochs=150
cascade_max_cand_epochs=150
cascade_num_candidate_groups=2
bit_fail_limit=3.49999999999999977796e-01
cascade_candidate_limit=1.00000000000000000000e+03
cascade_weight_multiplier=4.00000000000000022204e-01
cascade_activation_functions_count=10
cascade_activation_functions=3 5 7 8 10 11 14 15 16 17 
cascade_activation_steepnesses_count=4
cascade_activation_steepnesses=2.50000000000000000000e-01 5.00000000000000000000e-01 7.50000000000000000000e-01 1.00000000000000000000e+00 
layer_sizes=27 7 3 
scale_included=0
neurons (num_inputs, activation_function, activation_steepness)=(0, 0, 0.00000000000000000000e+00) (0, 0, 0.00000000000000000000e+00) (0, 0, 0.00000000000000000000e+00) (0, 0, 0.00000000000000000000e+00) (0, 0, 0.00000000000000000000e+00) (0, 0, 0.00000000000000000000e+00) (0, 0, 0.00000000000000000000e+00) (0, 0, 0.00000000000000000000e+00) (0, 0, 0.00000000000000000000e+00) (0, 0, 0.00000000000000000000e+00) (0, 0, 0.00000000000000000000e+00) (0, 0, 0.00000000000000000000e+00) (0, 0, 0.00000000000000000000e+00) (0, 0, 0.00000000000000000000e+00) (0, 0, 0.00000000000000000000e+00) (0, 0, 0.00000000000000000000e+00) (0, 0, 0.00000000000000000000e+00) (0, 0, 0.00000000000000000000e+00) (0, 0, 0.00000000000000000000e+00) (0, 0, 0.00000000000000000000e+00) (0, 0, 0.00000000000000000000e+00) (0, 0, 0.00000000000000000000e+00) (0, 0, 0.00000000000000000000e+00) (0, 0, 0.00000000000000000000e+00) (0, 0, 0.00000000000000000000e+00) (0, 0, 0.00000000000000000000e+00) (0, 0, 0.00000000000000000000e+00) (27, 4, 5.00000000000000000000e-01) (27, 4, 5.00000000000000000000e-01) (27, 4, 5.00000000000000000000e-01) (27, 4, 5.00000000000000000000e-01) (27, 4, 5.00000000000000000000e-01) (27, 4, 5.00000000000000000000e-01) (0, 0, 0.00000000000000000000e+00) (7, 6, 5.00000000000000000000e-01) (7, 6, 5.00000000000000000000e-01) (0, 6, 0.00000000000000000000e+00) 
connections (connected_to_neuron, weight)=(0, 2.90896399784344295014e+00) (1, -7.24003981883759722971e-02) (2, -1.69733963370318569064e-01) (3, 2.45132026907508959734e-01) (4, -3.93365749869711511799e-01) (5, 2.39361906547760183717e-01) (6, -3.07426648206669927976e-01) (7, 1.78055779312675660497e-01) (8, -1.47996298678436333240e-01) (9, -3.62994488650153577375e-03) (10, 8.46245937468774189760e-02) (11, 7.69439525892459397216e-02) (12, -5.15324418584989230041e-02) (13, 7.70748207614838309887e-01) (14, -2.08011279475782434600e-01) (15, 3.20877962838138561241e-02) (16, 2.63896129259277405221e-02) (17, 3.16916921525138214899e-02) (18, -8.89771598346554559722e-03) (19, 1.53396566242141405706e-02) (20, -1.53676650178501943839e-02) (21, 1.19885299126314300022e-02) (22, -3.80836807557425075996e-03) (23, 2.13809648691588773811e-03) (24, 2.91053407786259635617e-03) (25, -2.87850612756884033372e-03) (26, 9.50263557642212752796e+00) (0, 1.50000000000000000000e+03) (1, 1.50000000000000000000e+03) (2, -1.50000000000000000000e+03) (3, 1.50000000000000000000e+03) (4, -2.69235226658920510090e+02) (5, -1.50000000000000000000e+03) (6, -1.50000000000000000000e+03) (7, -1.50000000000000000000e+03) (8, -1.50000000000000000000e+03) (9, -1.07962450898238785157e+03) (10, 1.50000000000000000000e+03) (11, 1.50000000000000000000e+03) (12, -1.50000000000000000000e+03) (13, -1.50000000000000000000e+03) (14, -1.50000000000000000000e+03) (15, 1.50000000000000000000e+03) (16, -1.50000000000000000000e+03) (17, -1.50000000000000000000e+03) (18, -1.50000000000000000000e+03) (19, 1.50000000000000000000e+03) (20, -1.50000000000000000000e+03) (21, -1.50000000000000000000e+03) (22, 1.50000000000000000000e+03) (23, 1.50000000000000000000e+03) (24, 1.50000000000000000000e+03) (25, 1.50000000000000000000e+03) (26, 3.48374562230274253949e+00) (0, 1.50000000000000000000e+03) (1, 1.50000000000000000000e+03) (2, -1.50000000000000000000e+03) (3, 1.50000000000000000000e+03) (4, 1.50000000000000000000e+03) (5, -1.50000000000000000000e+03) (6, -1.50000000000000000000e+03) (7, -1.50000000000000000000e+03) (8, -1.46928552762510162211e+03) (9, 1.50000000000000000000e+03) (10, 1.50000000000000000000e+03) (11, 1.50000000000000000000e+03) (12, -1.50000000000000000000e+03) (13, 1.50000000000000000000e+03) (14, -1.50000000000000000000e+03) (15, 1.48699700157192660299e+03) (16, -1.50000000000000000000e+03) (17, -1.50000000000000000000e+03) (18, -1.36198236664646492500e+03) (19, 1.50000000000000000000e+03) (20, -1.50000000000000000000e+03) (21, -1.49380010546658991188e+03) (22, -1.50000000000000000000e+03) (23, -1.50000000000000000000e+03) (24, 1.50000000000000000000e+03) (25, 1.50000000000000000000e+03) (26, 2.56519855033422402357e+02) (0, 2.46628941991078631801e+00) (1, -6.94894646073716981682e-01) (2, 5.26809629187012351537e-01) (3, 2.63016136709782084868e-02) (4, 4.13808731862293499582e-02) (5, -1.18986736048820124223e-01) (6, 3.54159785002768623396e-01) (7, -2.24162217604166574825e-01) (8, 1.67541714962658322419e-01) (9, -1.31489919589639459030e-01) (10, 5.57872693532710656195e-02) (11, -1.90453624077661365366e-01) (12, 1.70790282214990457588e-01) (13, 1.22477966415576222659e+00) (14, 5.72287889567915444844e-02) (15, 7.01511548982657884288e-02) (16, -2.58013623704559866279e-02) (17, 1.48069525993601448094e-02) (18, -1.77406526883476592382e-02) (19, -4.97866516824302524080e-02) (20, 8.76483933516011316789e-03) (21, 9.80094468617130100407e-03) (22, 5.44023830108861347794e-04) (23, 2.07242110034598983614e-02) (24, -4.04668475418903158397e-03) (25, 8.88155499321843615312e-03) (26, 2.93808374527475857363e+00) (0, 8.56795576079358744970e-01) (1, -2.66946531929219896262e-02) (2, 9.85659478175667930211e-02) (3, -8.73527256894764403405e-02) (4, 7.50348732255872331171e-03) (5, -3.17699698269999913913e-02) (6, 3.64394125499280657765e-02) (7, -3.35039266542526970039e-02) (8, 3.20942722174189232209e-02) (9, -2.17106617562408087119e-02) (10, -3.82708430405877056413e-02) (11, -2.48048671492778136094e-02) (12, 2.82181807240591935038e-02) (13, 6.33902495862097903334e-01) (14, 3.12965603889116678049e-02) (15, 1.31694303675777713708e-02) (16, -9.93288086347062643133e-03) (17, 1.03896031438604589947e-02) (18, -5.68218682683237739928e-03) (19, 6.00158289636808141981e-03) (20, -4.96171945094729671677e-03) (21, 1.03226093297860204920e-03) (22, -5.31806102734218278348e-04) (23, -3.06269413839521231074e-03) (24, 2.05772719874023572034e-04) (25, 4.13638292951102725520e-03) (26, -1.95994466377219761499e-01) (0, -1.01843510501791789657e+00) (1, 9.83311357654663986683e-02) (2, -3.98242201940283258033e-01) (3, 2.61737068741475176203e-01) (4, -4.98866891008899956961e-02) (5, 1.12808014729694747191e-01) (6, -2.77870434326802587949e-03) (7, -1.51368629481917378599e-02) (8, -5.26146935117910302671e-02) (9, -5.55920533103914232820e-02) (10, 3.38641434977878866275e-02) (11, 3.42285687792424631049e-02) (12, 2.36833349378825566700e-02) (13, -2.71651739471447106755e-01) (14, -1.24880778155783314642e-01) (15, 2.22530201836225634271e-02) (16, 1.88056663984853336680e-02) (17, -3.08186771617093902866e-04) (18, 2.00564713421970885684e-03) (19, -6.76328510349821498959e-02) (20, 2.33775626519255909364e-02) (21, -9.15615401827126959566e-03) (22, -1.27573589573061799661e-03) (23, 3.56761921315070160143e-02) (24, 1.76014238747183408840e-02) (25, 4.44202039717218020998e-03) (26, -4.31220052433737510711e+00) (27, -1.29194669096591363555e+00) (28, -2.87004755438892110442e-02) (29, -1.97092046346687629899e-02) (30, -9.65870684232926879353e-01) (31, 2.48960464028251271529e+00) (32, 1.75471253243092784047e+00) (33, 1.73093567883955889997e+00) (27, 1.36589180232212159538e+00) (28, 7.44163122742903890977e-03) (29, 3.46177081287100812945e-02) (30, 1.21757859777597143847e+00) (31, -2.92182834081148046224e+00) (32, -1.71218013473419827797e+00) (33, 7.28689539214252057775e-01) 
