FANN_FLO_2.1
num_layers=3
learning_rate=0.010000
connection_rate=1.000000
network_type=0
learning_momentum=0.000000
training_algorithm=2
train_error_function=1
train_stop_function=0
cascade_output_change_fraction=0.010000
quickprop_decay=-0.000100
quickprop_mu=1.750000
rprop_increase_factor=1.200000
rprop_decrease_factor=0.500000
rprop_delta_min=0.000000
rprop_delta_max=50.000000
rprop_delta_zero=0.100000
cascade_output_stagnation_epochs=12
cascade_candidate_change_fraction=0.010000
cascade_candidate_stagnation_epochs=12
cascade_max_out_epochs=150
cascade_max_cand_epochs=150
cascade_num_candidate_groups=2
bit_fail_limit=3.49999999999999977796e-01
cascade_candidate_limit=1.00000000000000000000e+03
cascade_weight_multiplier=4.00000000000000022204e-01
cascade_activation_functions_count=10
cascade_activation_functions=3 5 7 8 10 11 14 15 16 17 
cascade_activation_steepnesses_count=4
cascade_activation_steepnesses=2.50000000000000000000e-01 5.00000000000000000000e-01 7.50000000000000000000e-01 1.00000000000000000000e+00 
layer_sizes=37 7 2 
scale_included=0
neurons (num_inputs, activation_function, activation_steepness)=(0, 0, 0.00000000000000000000e+00) (0, 0, 0.00000000000000000000e+00) (0, 0, 0.00000000000000000000e+00) (0, 0, 0.00000000000000000000e+00) (0, 0, 0.00000000000000000000e+00) (0, 0, 0.00000000000000000000e+00) (0, 0, 0.00000000000000000000e+00) (0, 0, 0.00000000000000000000e+00) (0, 0, 0.00000000000000000000e+00) (0, 0, 0.00000000000000000000e+00) (0, 0, 0.00000000000000000000e+00) (0, 0, 0.00000000000000000000e+00) (0, 0, 0.00000000000000000000e+00) (0, 0, 0.00000000000000000000e+00) (0, 0, 0.00000000000000000000e+00) (0, 0, 0.00000000000000000000e+00) (0, 0, 0.00000000000000000000e+00) (0, 0, 0.00000000000000000000e+00) (0, 0, 0.00000000000000000000e+00) (0, 0, 0.00000000000000000000e+00) (0, 0, 0.00000000000000000000e+00) (0, 0, 0.00000000000000000000e+00) (0, 0, 0.00000000000000000000e+00) (0, 0, 0.00000000000000000000e+00) (0, 0, 0.00000000000000000000e+00) (0, 0, 0.00000000000000000000e+00) (0, 0, 0.00000000000000000000e+00) (0, 0, 0.00000000000000000000e+00) (0, 0, 0.00000000000000000000e+00) (0, 0, 0.00000000000000000000e+00) (0, 0, 0.00000000000000000000e+00) (0, 0, 0.00000000000000000000e+00) (0, 0, 0.00000000000000000000e+00) (0, 0, 0.00000000000000000000e+00) (0, 0, 0.00000000000000000000e+00) (0, 0, 0.00000000000000000000e+00) (0, 0, 0.00000000000000000000e+00) (37, 4, 5.00000000000000000000e-01) (37, 4, 5.00000000000000000000e-01) (37, 4, 5.00000000000000000000e-01) (37, 4, 5.00000000000000000000e-01) (37, 4, 5.00000000000000000000e-01) (37, 4, 5.00000000000000000000e-01) (0, 0, 0.00000000000000000000e+00) (7, 6, 5.00000000000000000000e-01) (0, 6, 0.00000000000000000000e+00) 
connections (connected_to_neuron, weight)=(0, 3.56177562850258699889e-01) (1, -1.50000000000000000000e+03) (2, -1.50000000000000000000e+03) (3, 1.21469216818660902391e+03) (4, -1.50000000000000000000e+03) (5, -1.50000000000000000000e+03) (6, -1.50000000000000000000e+03) (7, -1.50000000000000000000e+03) (8, -1.50000000000000000000e+03) (9, 5.02321497282679829688e-01) (10, -1.50000000000000000000e+03) (11, -1.50000000000000000000e+03) (12, 1.50000000000000000000e+03) (13, 1.50000000000000000000e+03) (14, 6.79260592731504999620e+01) (15, 1.50000000000000000000e+03) (16, -8.81803931827617589079e+02) (17, 1.35422879155622422331e+03) (18, 1.50000000000000000000e+03) (19, -1.50000000000000000000e+03) (20, -6.64339423600922941660e+02) (21, -1.46639409421330856276e+03) (22, 1.50000000000000000000e+03) (23, -1.40460312028607427237e+03) (24, 1.92622024358194954274e+00) (25, 1.50000000000000000000e+03) (26, -1.50000000000000000000e+03) (27, 1.50000000000000000000e+03) (28, -1.50000000000000000000e+03) (29, 1.50000000000000000000e+03) (30, -1.50000000000000000000e+03) (31, -9.38662399155698267350e+02) (32, -1.50000000000000000000e+03) (33, -1.50000000000000000000e+03) (34, -1.28515520366263702456e+00) (35, 3.29402005201472736218e+00) (36, -1.50000000000000000000e+03) (0, 1.38799652875380163941e+00) (1, -1.37645393501130142155e+00) (2, 1.08045245428365244145e+00) (3, -4.16925788482268855351e-01) (4, 1.09456582396314869993e-02) (5, 1.37667669569866701895e-01) (6, -2.33160822487970403882e-01) (7, 6.83178094560179666184e-02) (8, 2.45172667196530996714e-01) (9, -3.02853485312263970286e-01) (10, 1.52989898767948578895e-01) (11, -7.65254903580852435807e-02) (12, -2.55113137433509995500e-01) (13, 1.11427738074926490491e-02) (14, 2.82352978111132905947e-02) (15, 3.22052375203059487729e-02) (16, -2.82083770781501597114e-02) (17, 3.46468005554232153995e-06) (18, 4.34494192837814527386e-02) (19, 1.50960755261771127633e-02) (20, -2.21324333436885289927e-02) (21, 2.70966184743069576912e-02) (22, -2.04623786136388340073e-02) (23, 4.38647969035476509303e-02) (24, 3.68725622420815135616e-01) (25, -1.94733615454552566604e+00) (26, 1.22384415192752560309e+00) (27, -3.49799882527533190224e-01) (28, 2.62076166416595424113e-01) (29, -5.88657996802795721591e-02) (30, -2.00349311758053899579e-01) (31, -4.37991613980016278318e-02) (32, 4.91625200130035355794e-01) (33, -4.95049758824092578369e-01) (34, 2.67944597638074155643e-01) (35, -8.16291946434656995324e-02) (36, -7.75315996426686382392e+00) (0, 1.62179244353124762945e+00) (1, 2.83843600382750582689e-01) (2, 1.58166147078317287367e+00) (3, -1.60149201504460547696e-01) (4, 5.43143876262065922189e-02) (5, -1.06116284092236001779e-01) (6, 1.76003146984414243770e-01) (7, -7.79088469584513915178e-02) (8, 1.57713299617268154496e-01) (9, 3.44291078654865634334e-01) (10, -2.27571788211550801728e-01) (11, -1.85899689630717346311e-01) (12, 1.03102803940604059729e-01) (13, -5.35548942192490606828e-01) (14, 7.88539235491354295604e-01) (15, 1.73516660399696265316e-01) (16, 2.79917288559578647522e-01) (17, -2.82733354670406222819e-01) (18, 2.06455621157219486317e-02) (19, 1.13954515487775298599e-01) (20, -4.96238028736587857837e-02) (21, -8.33834072994881908558e-02) (22, -2.30095130808480562157e-02) (23, 9.61761608557665514940e-02) (24, -1.91725343652843505104e+00) (25, 1.25223943329188025508e+00) (26, 8.79552373518706076538e-01) (27, 4.10686295213083973898e-01) (28, -1.83824559086256000828e-01) (29, -2.56707700112413617077e-01) (30, 1.75137794610710467724e-01) (31, -2.82250286815949824604e-01) (32, 4.85361695541439153168e-01) (33, 2.99260537137678250819e-01) (34, -7.76559348192075588058e-02) (35, -2.74984439018931547949e-01) (36, -2.02044086318595628171e+00) (0, 5.85300765245104770429e-01) (1, -1.17622109908439465009e+00) (2, -2.48258627065417014634e-01) (3, -8.03750580723909036074e-01) (4, -2.91718994329069780669e-01) (5, 9.84318407469003398003e-02) (6, 2.91531547814021130272e-01) (7, 6.48267766790887323136e-02) (8, 8.71129261775477892193e-02) (9, -2.85381237264874243476e-01) (10, 4.34519451799243283663e-01) (11, -2.78940872481135915262e-01) (12, -2.36040510399736014335e+00) (13, -6.58771633032707915056e-01) (14, 8.06168924638775291625e-02) (15, -2.13076180296236927791e-01) (16, -1.70337935936437125106e-02) (17, -8.62852709124938554996e-02) (18, -2.04956541404548511776e-02) (19, -1.15143615065971441358e-01) (20, 7.60368352227220739570e-02) (21, 5.86914440592208666581e-02) (22, 3.04454327522454826216e-03) (23, -9.20128787002208181622e-02) (24, 3.56155598329856282191e+00) (25, -1.81538677472233889176e+00) (26, -3.42611231724596954074e-01) (27, -1.17659496622570491908e+00) (28, -4.49003842772254857518e-01) (29, 7.61605408935677775928e-03) (30, 7.22762307536247150530e-01) (31, 1.03469250186936978508e-01) (32, 1.45628384223001755560e-01) (33, -5.17250191387720770209e-01) (34, 6.36077481104488695607e-01) (35, -4.98753717213517799856e-01) (36, -9.01004567138008738425e+00) (0, 2.72842280735485831489e-01) (1, 5.29521602168142480060e-01) (2, -2.53225264422979823298e-01) (3, -1.39949419321416446138e+00) (4, -2.90729654974701712256e-01) (5, -1.76034340580156684064e-01) (6, -4.34494165920112473955e-01) (7, 2.50191208579561397141e-01) (8, -4.96264231688557794220e-02) (9, -9.25616958019224167487e-01) (10, -4.52261970469965468578e-01) (11, -1.51586784066425256379e-01) (12, 2.44645258884026128854e+00) (13, 1.69848793887394489133e+00) (14, -1.46279988766372448517e+00) (15, 2.68541232515614236576e-01) (16, -3.30037426892128282763e-01) (17, 5.82892361514973575409e-02) (18, -5.88617478779482672380e-01) (19, 6.15196056489324752392e-02) (20, 1.13623644603469145520e-01) (21, 2.03146473644863184704e-01) (22, -2.65430940966619288712e-01) (23, 2.42960407098820385663e-01) (24, -3.31896680823314360609e+00) (25, -1.11947865109912902959e+00) (26, 1.29160179007382058813e+00) (27, -3.85276509252602972211e+00) (28, -8.21640496710812073822e-02) (29, 4.27464062917529419305e-01) (30, -1.38440718879453217305e+00) (31, 4.22398576400384861973e-01) (32, -1.33380890739983049009e-01) (33, -2.06144300276138592309e+00) (34, -5.40872820810254117951e-01) (35, -7.60354807074428595826e-01) (36, -1.17603348968020373633e+01) (0, 1.61228768229530317058e+00) (1, 1.30373971242659636438e+00) (2, -6.18877610096534858108e-01) (3, 2.32287442393024540221e-01) (4, -2.50499202774133067351e-01) (5, 7.31862026561003742309e-02) (6, 4.88885793385006456324e-02) (7, -3.09142788478315895528e-03) (8, -2.55726294840051771029e-01) (9, 2.10882835885065317294e-01) (10, -8.39510987764149202439e-02) (11, 7.56224911170174374231e-02) (12, 1.16199616692899221349e+00) (13, 6.44796540767491266344e-01) (14, -4.63197310550112761884e-01) (15, 1.32272021864514283118e-01) (16, -3.78143877657862725883e-02) (17, 7.91231932332343845804e-02) (18, -4.09121936068699496025e-02) (19, 2.83224948690831666853e-02) (20, 1.59543025987375734764e-02) (21, -6.76796204787663696623e-02) (22, 7.64021482368124060791e-02) (23, -3.94723012282754553981e-02) (24, 1.96938762144572088175e+00) (25, 1.45825117504086065878e+00) (26, -2.13365305580548975106e-01) (27, 1.32695433747404140101e-02) (28, -5.65030545003307516083e-01) (29, 4.46038536915237759928e-01) (30, -2.34555817005246053375e-01) (31, 1.37681606637210213195e-01) (32, -4.85130547294089720101e-01) (33, 3.44145736955985159788e-01) (34, -1.28747906619151419871e-01) (35, 7.19420552033222943100e-02) (36, -7.79538493050082426095e+00) (37, 1.61236325790971968264e-01) (38, 1.74797232410283309711e+00) (39, 6.67234572484562971084e-01) (40, 8.96210395001662551984e-01) (41, 5.99224784431125367945e-01) (42, 2.01010610905678799298e+00) (43, -2.11745198492201280871e+00) 
