FANN_FLO_2.1
num_layers=3
learning_rate=0.010000
connection_rate=1.000000
network_type=0
learning_momentum=0.000000
training_algorithm=2
train_error_function=1
train_stop_function=0
cascade_output_change_fraction=0.010000
quickprop_decay=-0.000100
quickprop_mu=1.750000
rprop_increase_factor=1.200000
rprop_decrease_factor=0.500000
rprop_delta_min=0.000000
rprop_delta_max=50.000000
rprop_delta_zero=0.100000
cascade_output_stagnation_epochs=12
cascade_candidate_change_fraction=0.010000
cascade_candidate_stagnation_epochs=12
cascade_max_out_epochs=150
cascade_max_cand_epochs=150
cascade_num_candidate_groups=2
bit_fail_limit=3.49999999999999977796e-01
cascade_candidate_limit=1.00000000000000000000e+03
cascade_weight_multiplier=4.00000000000000022204e-01
cascade_activation_functions_count=10
cascade_activation_functions=3 5 7 8 10 11 14 15 16 17 
cascade_activation_steepnesses_count=4
cascade_activation_steepnesses=2.50000000000000000000e-01 5.00000000000000000000e-01 7.50000000000000000000e-01 1.00000000000000000000e+00 
layer_sizes=27 7 3 
scale_included=0
neurons (num_inputs, activation_function, activation_steepness)=(0, 0, 0.00000000000000000000e+00) (0, 0, 0.00000000000000000000e+00) (0, 0, 0.00000000000000000000e+00) (0, 0, 0.00000000000000000000e+00) (0, 0, 0.00000000000000000000e+00) (0, 0, 0.00000000000000000000e+00) (0, 0, 0.00000000000000000000e+00) (0, 0, 0.00000000000000000000e+00) (0, 0, 0.00000000000000000000e+00) (0, 0, 0.00000000000000000000e+00) (0, 0, 0.00000000000000000000e+00) (0, 0, 0.00000000000000000000e+00) (0, 0, 0.00000000000000000000e+00) (0, 0, 0.00000000000000000000e+00) (0, 0, 0.00000000000000000000e+00) (0, 0, 0.00000000000000000000e+00) (0, 0, 0.00000000000000000000e+00) (0, 0, 0.00000000000000000000e+00) (0, 0, 0.00000000000000000000e+00) (0, 0, 0.00000000000000000000e+00) (0, 0, 0.00000000000000000000e+00) (0, 0, 0.00000000000000000000e+00) (0, 0, 0.00000000000000000000e+00) (0, 0, 0.00000000000000000000e+00) (0, 0, 0.00000000000000000000e+00) (0, 0, 0.00000000000000000000e+00) (0, 0, 0.00000000000000000000e+00) (27, 4, 5.00000000000000000000e-01) (27, 4, 5.00000000000000000000e-01) (27, 4, 5.00000000000000000000e-01) (27, 4, 5.00000000000000000000e-01) (27, 4, 5.00000000000000000000e-01) (27, 4, 5.00000000000000000000e-01) (0, 0, 0.00000000000000000000e+00) (7, 6, 5.00000000000000000000e-01) (7, 6, 5.00000000000000000000e-01) (0, 6, 0.00000000000000000000e+00) 
connections (connected_to_neuron, weight)=(0, -1.72696333856160944009e+00) (1, 1.12768762237135139470e-01) (2, -4.60721955507986724587e-01) (3, 3.02352030247608483116e-01) (4, 7.64282049618585416183e-04) (5, 7.63176338036546386689e-02) (6, 1.26061978735665380924e-02) (7, -3.04070744125884834252e-02) (8, -4.29357260754629072030e-02) (9, -6.52580965475793445263e-02) (10, 6.09218122958664481947e-02) (11, 8.54168776104928702264e-03) (12, 2.40210701025710231249e-02) (13, -1.71951493442771408127e+00) (14, -1.00683657359687567245e-01) (15, 7.10313431217937836515e-03) (16, 1.88880437366046836922e-02) (17, 1.15702480700861096499e-03) (18, 9.18059598444548319307e-03) (19, -3.30420949311564932094e-02) (20, 2.78274178050637518989e-02) (21, -2.54668321460347311935e-03) (22, 2.75494033226117776558e-03) (23, 1.49456113647469159694e-02) (24, 1.01574814964277022195e-02) (25, 2.03410852929457666716e-03) (26, -5.99305472773900493877e+00) (0, 1.50000000000000000000e+03) (1, -1.49964054059879481429e+03) (2, -1.50000000000000000000e+03) (3, 1.50000000000000000000e+03) (4, 1.50000000000000000000e+03) (5, 1.50000000000000000000e+03) (6, 1.50000000000000000000e+03) (7, 1.49985501567146025081e+03) (8, -1.50000000000000000000e+03) (9, 1.50000000000000000000e+03) (10, 1.50000000000000000000e+03) (11, 1.50000000000000000000e+03) (12, 1.50000000000000000000e+03) (13, 1.50000000000000000000e+03) (14, -1.47290028652289083766e+03) (15, 1.50000000000000000000e+03) (16, -1.50000000000000000000e+03) (17, -1.31048373540189618325e+03) (18, -1.50000000000000000000e+03) (19, 1.50000000000000000000e+03) (20, -1.43801795759408105368e+03) (21, 1.48413622763624266554e+03) (22, 1.50000000000000000000e+03) (23, 1.50000000000000000000e+03) (24, 1.50000000000000000000e+03) (25, 1.50000000000000000000e+03) (26, 1.89970834152215388713e+01) (0, 1.74807320427340417979e+00) (1, -5.48022730616727127284e-01) (2, 3.66701040678803491524e-01) (3, 6.38180574759210222924e-02) (4, -5.94104240127790034220e-03) (5, 1.04642083795663792117e-02) (6, 2.17236515547188008268e-01) (7, -1.20707002701968532654e-01) (8, 7.02993091061832331423e-02) (9, -6.11694252103317237523e-02) (10, 3.08053847676100049646e-02) (11, -1.26916461568330835030e-01) (12, 1.19064643358589308808e-01) (13, 6.81112102590515466893e-01) (14, 7.89031284504055213658e-02) (15, 3.76311665796428759800e-02) (16, 2.53392348930990898848e-02) (17, -1.32639635662994180912e-04) (18, -1.41975041839115696807e-02) (19, -5.51247737689764538693e-02) (20, 2.80239043235552716393e-02) (21, -6.21493620554218343180e-04) (22, 4.31570586901548498143e-03) (23, 2.41410053419685716181e-02) (24, 1.14691805340764122617e-02) (25, 1.08267570498949538410e-02) (26, 1.91445569267785487000e+00) (0, -3.08925572277082727268e-01) (1, -8.74874604503407191092e-03) (2, 6.76413363339115891737e-02) (3, -8.13604038824642383787e-02) (4, 6.53236362707963758023e-02) (5, -3.73695686647521202461e-02) (6, 7.56955273992768462588e-02) (7, -4.21829424738937724948e-02) (8, 3.06564641991039499302e-02) (9, 1.64460366679462636520e-03) (10, -3.11966808971866627065e-02) (11, -2.08907163344811477868e-02) (12, 2.44500366006415344178e-02) (13, 1.09343187936450456782e-02) (14, 9.01862064336657193175e-02) (15, -9.72975652295699280914e-03) (16, 1.72550859601686285005e-02) (17, -2.19498808158191220652e-02) (18, 4.52195989434476565416e-03) (19, -2.79395783689522364535e-02) (20, 1.56025049949791855264e-02) (21, -4.90558002548827868511e-03) (22, 6.83021604621799477419e-03) (23, 1.22506996755853744124e-02) (24, 1.06824056641136831691e-02) (25, 4.27045713167704867746e-03) (26, -1.50626376515917259624e+00) (0, -1.50000000000000000000e+03) (1, 7.55273572733838022941e+02) (2, 1.50000000000000000000e+03) (3, -1.50000000000000000000e+03) (4, -1.50000000000000000000e+03) (5, -1.50000000000000000000e+03) (6, -1.50000000000000000000e+03) (7, 1.46999999880790710449e+03) (8, 1.50000000000000000000e+03) (9, -1.50000000000000000000e+03) (10, 1.41794868993440286431e+03) (11, -1.50000000000000000000e+03) (12, -1.50000000000000000000e+03) (13, 1.50000000000000000000e+03) (14, 1.50000000000000000000e+03) (15, -1.50000000000000000000e+03) (16, 1.50000000000000000000e+03) (17, 1.49731067916891061031e+03) (18, 1.50000000000000000000e+03) (19, -1.50000000000000000000e+03) (20, -7.03801081725510698561e+02) (21, -1.23458120356036602061e+03) (22, -1.50000000000000000000e+03) (23, -1.50000000000000000000e+03) (24, -1.50000000000000000000e+03) (25, -1.50000000000000000000e+03) (26, -5.57841556860527347794e+01) (0, -1.59321167197085844514e+00) (1, 9.88919518733024360824e-02) (2, -1.35984443897413445623e-02) (3, -8.01122866308260211943e-02) (4, 1.01161783791490322848e-01) (5, -7.25886501242309495341e-02) (6, 5.64416373025707490685e-02) (7, -3.41534055376856646169e-02) (8, 2.81677199211658735312e-02) (9, 1.58320588342412242600e-02) (10, -3.66516872675642663842e-03) (11, -8.99279243647590174893e-03) (12, -1.13105637119107552135e-02) (13, -1.11284164319683709365e+00) (14, 1.40955551070716195161e-01) (15, -4.15370557146858485065e-02) (16, 4.10533630958230602581e-02) (17, -4.98062326749039371854e-02) (18, 2.37926209654070602850e-02) (19, -4.93589239962553827379e-02) (20, 2.77330402434710146520e-02) (21, -1.45905400263635250113e-02) (22, 9.94444535021350543846e-03) (23, 1.09090328399799561809e-02) (24, 1.30135387668474742512e-02) (25, -4.25666671929046756123e-03) (26, -1.24975761151572273278e+00) (27, 1.71410934659371760880e+00) (28, -4.26656216278091249272e-02) (29, -1.50786767049115666417e+00) (30, 4.67640414304844487248e+00) (31, 6.47423248456254207817e-02) (32, -2.38489880763749484416e+00) (33, 1.61792650134477411505e+00) (27, -1.48905589146092198760e+00) (28, 6.53208762223687344761e-02) (29, 1.78025722895065685591e+00) (30, -4.93977178639892411383e+00) (31, -4.41792522100729403989e-02) (32, 2.58052908323250917988e+00) (33, 6.90895830405500732674e-01) 
