FANN_FLO_2.1
num_layers=3
learning_rate=0.010000
connection_rate=1.000000
network_type=0
learning_momentum=0.000000
training_algorithm=2
train_error_function=1
train_stop_function=0
cascade_output_change_fraction=0.010000
quickprop_decay=-0.000100
quickprop_mu=1.750000
rprop_increase_factor=1.200000
rprop_decrease_factor=0.500000
rprop_delta_min=0.000000
rprop_delta_max=50.000000
rprop_delta_zero=0.100000
cascade_output_stagnation_epochs=12
cascade_candidate_change_fraction=0.010000
cascade_candidate_stagnation_epochs=12
cascade_max_out_epochs=150
cascade_max_cand_epochs=150
cascade_num_candidate_groups=2
bit_fail_limit=3.49999999999999977796e-01
cascade_candidate_limit=1.00000000000000000000e+03
cascade_weight_multiplier=4.00000000000000022204e-01
cascade_activation_functions_count=10
cascade_activation_functions=3 5 7 8 10 11 14 15 16 17 
cascade_activation_steepnesses_count=4
cascade_activation_steepnesses=2.50000000000000000000e-01 5.00000000000000000000e-01 7.50000000000000000000e-01 1.00000000000000000000e+00 
layer_sizes=27 7 2 
scale_included=0
neurons (num_inputs, activation_function, activation_steepness)=(0, 0, 0.00000000000000000000e+00) (0, 0, 0.00000000000000000000e+00) (0, 0, 0.00000000000000000000e+00) (0, 0, 0.00000000000000000000e+00) (0, 0, 0.00000000000000000000e+00) (0, 0, 0.00000000000000000000e+00) (0, 0, 0.00000000000000000000e+00) (0, 0, 0.00000000000000000000e+00) (0, 0, 0.00000000000000000000e+00) (0, 0, 0.00000000000000000000e+00) (0, 0, 0.00000000000000000000e+00) (0, 0, 0.00000000000000000000e+00) (0, 0, 0.00000000000000000000e+00) (0, 0, 0.00000000000000000000e+00) (0, 0, 0.00000000000000000000e+00) (0, 0, 0.00000000000000000000e+00) (0, 0, 0.00000000000000000000e+00) (0, 0, 0.00000000000000000000e+00) (0, 0, 0.00000000000000000000e+00) (0, 0, 0.00000000000000000000e+00) (0, 0, 0.00000000000000000000e+00) (0, 0, 0.00000000000000000000e+00) (0, 0, 0.00000000000000000000e+00) (0, 0, 0.00000000000000000000e+00) (0, 0, 0.00000000000000000000e+00) (0, 0, 0.00000000000000000000e+00) (0, 0, 0.00000000000000000000e+00) (27, 4, 5.00000000000000000000e-01) (27, 4, 5.00000000000000000000e-01) (27, 4, 5.00000000000000000000e-01) (27, 4, 5.00000000000000000000e-01) (27, 4, 5.00000000000000000000e-01) (27, 4, 5.00000000000000000000e-01) (0, 0, 0.00000000000000000000e+00) (7, 6, 5.00000000000000000000e-01) (0, 6, 0.00000000000000000000e+00) 
connections (connected_to_neuron, weight)=(0, 7.74486264634562382447e-02) (1, -7.20107267434914183335e-02) (2, 5.55572576754002900312e-02) (3, -2.17910658397711648471e-01) (4, 3.34354366304338776472e-02) (5, 5.46600326355578744475e-02) (6, 1.35886154673501152734e-01) (7, -3.39897555075086982290e-02) (8, -1.95029787116189866347e-02) (9, 7.61732999702797314301e-02) (10, -5.51302702775386885281e-02) (11, 2.75322960896976949574e-02) (12, 2.81614951279642068693e-02) (13, 1.78255625934209044336e-01) (14, 1.23630590834064458400e-02) (15, 2.73720747775948944347e-02) (16, -6.04076501860160378771e-03) (17, -1.23013544992367444136e-02) (18, 9.85377511264824728536e-05) (19, -1.87581094321086108527e-03) (20, 1.94641343016272519439e-02) (21, 1.00829965248982276332e-02) (22, -5.47094025349629305838e-03) (23, -4.53386547711817026324e-03) (24, 5.07356127444571342044e-03) (25, 3.73732382242661018146e-03) (26, -3.27938342459336595880e+00) (0, -2.94257872980981760591e+00) (1, 8.54612807726888301652e-01) (2, -4.95458677140988235088e-01) (3, -3.36108624818182225025e-02) (4, 6.27572619488550448308e-02) (5, 4.42408933195322859322e-02) (6, -3.11529232352096285830e-01) (7, 2.07889393472426992071e-01) (8, -1.14590422438912639680e-01) (9, 1.44690295081216446782e-01) (10, -9.29112523444087373692e-02) (11, 1.77735788237985081750e-01) (12, -1.82937340327621211777e-01) (13, 4.15972032127151114533e-01) (14, 2.07451751539361427257e-02) (15, -6.88584193338047795274e-02) (16, -5.29287282521324620177e-02) (17, 4.57356515513327177569e-02) (18, -5.07806646264173482119e-03) (19, 2.24823431081222491201e-02) (20, -1.48040164857656079966e-02) (21, -4.34301553271725614136e-03) (22, 1.61190404119638634739e-02) (23, 3.37347579909420824951e-02) (24, -2.73715763956175993366e-02) (25, 1.78908529571590417528e-02) (26, -3.48560767349533184856e+00) (0, 2.10467500622780551156e-01) (1, 7.96939240053770314720e-02) (2, -2.69711717452093102665e-01) (3, 8.34941822801297528489e-02) (4, -6.82996586414035961043e-02) (5, 1.01677205869926845505e-01) (6, -4.73256690698180410015e-02) (7, -2.32047689143036993398e-02) (8, -2.60984827221832429989e-02) (9, -9.13396110129913174625e-02) (10, 2.59374414351285532965e-02) (11, 3.23781967578690849097e-02) (12, 1.65077614612389560189e-03) (13, 1.66687177826506716105e-01) (14, -2.44667171953324102951e-01) (15, 6.22494927831492017578e-02) (16, 1.09697252006287684217e-02) (17, 3.25103467527581013741e-02) (18, -3.29465965726905701816e-03) (19, 2.64040026841723778073e-02) (20, 3.06888061998209556863e-03) (21, -1.41020818270788349247e-02) (22, -9.59788587721418541554e-03) (23, -1.45799128163669518971e-02) (24, 6.35455548859611453472e-04) (25, 1.20916292943728225645e-02) (26, -3.37057331877657828656e+00) (0, -5.06256621718493970974e+00) (1, 1.63664153419895874730e-01) (2, -6.98499028422848056152e-01) (3, 3.39440894855943808839e-01) (4, 1.55524205861210018664e-01) (5, -1.67051832969760699621e-01) (6, 1.74581715729864306308e-01) (7, -8.41387680427854861565e-02) (8, 1.45196825204073842741e-01) (9, -4.51611803285112897721e-02) (10, 1.44177545935554075884e-02) (11, -1.27801054400997926574e-01) (12, 1.48719111082510652144e-01) (13, -2.60357339306735235951e+00) (14, 2.80259007223739638887e-03) (15, 3.95522928205767083237e-03) (16, 4.54103441348931782806e-02) (17, -1.51870883474997692142e-01) (18, 1.23838842543967209142e-01) (19, -6.06233720055370031710e-02) (20, 2.17475822524358687604e-02) (21, 2.07511376051940817089e-02) (22, -2.22340526369513846738e-02) (23, -3.95073237622195067020e-02) (24, 1.75187591444811753549e-02) (25, -5.80156284014227696666e-02) (26, -1.78377658655140258759e+01) (0, 1.50000000000000000000e+03) (1, -1.50000000000000000000e+03) (2, 1.50000000000000000000e+03) (3, 1.50000000000000000000e+03) (4, -1.50000000000000000000e+03) (5, 1.50000000000000000000e+03) (6, 1.50000000000000000000e+03) (7, -1.50000000000000000000e+03) (8, 1.50000000000000000000e+03) (9, -1.50000000000000000000e+03) (10, -1.50000000000000000000e+03) (11, -1.50000000000000000000e+03) (12, 1.50000000000000000000e+03) (13, 1.50000000000000000000e+03) (14, 1.50000000000000000000e+03) (15, 1.50000000000000000000e+03) (16, -1.50000000000000000000e+03) (17, 1.50000000000000000000e+03) (18, 1.50000000000000000000e+03) (19, -1.50000000000000000000e+03) (20, 1.50000000000000000000e+03) (21, 1.50000000000000000000e+03) (22, -1.50000000000000000000e+03) (23, -1.50000000000000000000e+03) (24, -1.50000000000000000000e+03) (25, -1.50000000000000000000e+03) (26, -1.10605677739014504368e+03) (0, 5.84111806844828884699e-01) (1, -1.39782116420284034664e-02) (2, 1.38631897390316893848e-01) (3, -4.72627843838533540088e-03) (4, 1.84413857072506376378e-02) (5, -1.24904665824462898782e-01) (6, -7.32827930677033660689e-03) (7, -2.18870898233278973755e-02) (8, 6.28122803874859303441e-02) (9, -6.48658430252152390372e-02) (10, -4.54136775506892922949e-02) (11, -6.57957353829192737038e-02) (12, 2.15039108024864152047e-02) (13, 9.90510656024205293768e-01) (14, 1.23313568680574817127e-01) (15, -2.52737539739390885962e-02) (16, 1.72627883024757643182e-02) (17, -5.39692847683730537317e-03) (18, -4.21152188548561470793e-03) (19, -2.03235963365714748796e-02) (20, -1.65477254510792426423e-02) (21, -2.28037826307618159138e-02) (22, 3.08519097891577030041e-03) (23, -4.46969866396489112770e-03) (24, 5.54040278184530794042e-03) (25, -7.00901025219764859525e-03) (26, -2.98058302181831624722e+00) (27, 2.63442270499191666389e+00) (28, 8.06569833954516979269e-01) (29, 2.70347349235217215835e+00) (30, 1.92600211728771375519e+00) (31, 6.13905226249733104033e-03) (32, 4.18577517670136334260e+00) (33, -1.35573473396787741452e-01) 
