FANN_FLO_2.1
num_layers=3
learning_rate=0.010000
connection_rate=1.000000
network_type=0
learning_momentum=0.000000
training_algorithm=2
train_error_function=1
train_stop_function=0
cascade_output_change_fraction=0.010000
quickprop_decay=-0.000100
quickprop_mu=1.750000
rprop_increase_factor=1.200000
rprop_decrease_factor=0.500000
rprop_delta_min=0.000000
rprop_delta_max=50.000000
rprop_delta_zero=0.100000
cascade_output_stagnation_epochs=12
cascade_candidate_change_fraction=0.010000
cascade_candidate_stagnation_epochs=12
cascade_max_out_epochs=150
cascade_max_cand_epochs=150
cascade_num_candidate_groups=2
bit_fail_limit=3.49999999999999977796e-01
cascade_candidate_limit=1.00000000000000000000e+03
cascade_weight_multiplier=4.00000000000000022204e-01
cascade_activation_functions_count=10
cascade_activation_functions=3 5 7 8 10 11 14 15 16 17 
cascade_activation_steepnesses_count=4
cascade_activation_steepnesses=2.50000000000000000000e-01 5.00000000000000000000e-01 7.50000000000000000000e-01 1.00000000000000000000e+00 
layer_sizes=37 7 2 
scale_included=0
neurons (num_inputs, activation_function, activation_steepness)=(0, 0, 0.00000000000000000000e+00) (0, 0, 0.00000000000000000000e+00) (0, 0, 0.00000000000000000000e+00) (0, 0, 0.00000000000000000000e+00) (0, 0, 0.00000000000000000000e+00) (0, 0, 0.00000000000000000000e+00) (0, 0, 0.00000000000000000000e+00) (0, 0, 0.00000000000000000000e+00) (0, 0, 0.00000000000000000000e+00) (0, 0, 0.00000000000000000000e+00) (0, 0, 0.00000000000000000000e+00) (0, 0, 0.00000000000000000000e+00) (0, 0, 0.00000000000000000000e+00) (0, 0, 0.00000000000000000000e+00) (0, 0, 0.00000000000000000000e+00) (0, 0, 0.00000000000000000000e+00) (0, 0, 0.00000000000000000000e+00) (0, 0, 0.00000000000000000000e+00) (0, 0, 0.00000000000000000000e+00) (0, 0, 0.00000000000000000000e+00) (0, 0, 0.00000000000000000000e+00) (0, 0, 0.00000000000000000000e+00) (0, 0, 0.00000000000000000000e+00) (0, 0, 0.00000000000000000000e+00) (0, 0, 0.00000000000000000000e+00) (0, 0, 0.00000000000000000000e+00) (0, 0, 0.00000000000000000000e+00) (0, 0, 0.00000000000000000000e+00) (0, 0, 0.00000000000000000000e+00) (0, 0, 0.00000000000000000000e+00) (0, 0, 0.00000000000000000000e+00) (0, 0, 0.00000000000000000000e+00) (0, 0, 0.00000000000000000000e+00) (0, 0, 0.00000000000000000000e+00) (0, 0, 0.00000000000000000000e+00) (0, 0, 0.00000000000000000000e+00) (0, 0, 0.00000000000000000000e+00) (37, 4, 5.00000000000000000000e-01) (37, 4, 5.00000000000000000000e-01) (37, 4, 5.00000000000000000000e-01) (37, 4, 5.00000000000000000000e-01) (37, 4, 5.00000000000000000000e-01) (37, 4, 5.00000000000000000000e-01) (0, 0, 0.00000000000000000000e+00) (7, 6, 5.00000000000000000000e-01) (0, 6, 0.00000000000000000000e+00) 
connections (connected_to_neuron, weight)=(0, 5.68616241512737152775e-01) (1, -3.66013201915305563805e-01) (2, 5.95051053442916672021e-02) (3, -7.07980491035441916736e-01) (4, -1.44804158269755900434e+00) (5, -7.23964110601399091216e-01) (6, 5.89111030527920062627e-02) (7, -3.93169778225919308579e-01) (8, -2.27707076412027920043e-01) (9, -5.17186331310153912105e-03) (10, -4.00376709498825256173e-01) (11, -2.07587758330882610203e-01) (12, 1.28229783693731480554e+00) (13, 3.06328791590988802618e-01) (14, 9.40239341861592511918e-03) (15, 4.79037237941064286684e-02) (16, 7.76166315393781169885e-02) (17, -3.55436058868023041502e-02) (18, 3.46870352026802247769e-02) (19, 2.91062606393968671681e-02) (20, 1.02743183469573451383e-01) (21, 1.34037983048364395255e-01) (22, -1.67695168254151025233e-02) (23, 1.07093882377657004246e-01) (24, 4.43250347723131632449e+00) (25, 5.37981043721760143761e-01) (26, -9.05644443057288306420e-01) (27, -6.53570681219556217506e-03) (28, -2.34614479470930525906e+00) (29, -1.33371705916958394056e+00) (30, 5.11883067461128549169e-01) (31, -6.57473139439689102659e-01) (32, -5.06333224553188854244e-01) (33, -6.34816641388634694820e-02) (34, -6.89985577072634748141e-01) (35, -4.51923647497267169659e-02) (36, -1.41933134597474932548e+01) (0, 8.99716349287204453233e-01) (1, -1.50000000000000000000e+03) (2, -1.50000000000000000000e+03) (3, 1.50000000000000000000e+03) (4, -1.50000000000000000000e+03) (5, -1.50000000000000000000e+03) (6, -1.50000000000000000000e+03) (7, -5.67744600891787172259e+02) (8, 1.50000000000000000000e+03) (9, 1.50000000000000000000e+03) (10, 1.40530370346512677315e+03) (11, 1.50000000000000000000e+03) (12, -1.50000000000000000000e+03) (13, 1.50000000000000000000e+03) (14, -3.82439209284941072919e-01) (15, -1.50000000000000000000e+03) (16, 1.50000000000000000000e+03) (17, 1.50000000000000000000e+03) (18, 5.46494462258587759607e+02) (19, 1.50000000000000000000e+03) (20, -2.79947901280111433042e-01) (21, 1.50000000000000000000e+03) (22, -1.50000000000000000000e+03) (23, 6.11814857183442086352e+02) (24, -1.50000000000000000000e+03) (25, 8.25307150311783857433e+02) (26, 1.50000000000000000000e+03) (27, 1.50000000000000000000e+03) (28, -1.50000000000000000000e+03) (29, -1.50000000000000000000e+03) (30, 1.50000000000000000000e+03) (31, -8.15624321653042670732e+02) (32, 3.38337051812284883567e+00) (33, 1.50000000000000000000e+03) (34, 1.50000000000000000000e+03) (35, 1.50000000000000000000e+03) (36, -8.20378611787359801610e+01) (0, 1.63648583253039103802e+00) (1, -1.19961069120151364586e+00) (2, -1.09471094102341659493e+00) (3, 1.53923829888157337464e-01) (4, 4.54922392367698602555e-01) (5, -7.79067729077295378914e-01) (6, 1.38789009231075233242e-01) (7, -2.43522710984933277167e-01) (8, 5.95326448954601183949e-02) (9, -3.34820041764893439051e-01) (10, 1.14453396788784411697e-01) (11, -4.86747208979583789734e-01) (12, -1.72769273319124350152e+00) (13, 6.44430123486802730604e-01) (14, -6.01696863437681250808e-01) (15, 4.20355189850041624511e-02) (16, -2.22277174031441676627e-01) (17, 1.95427214011611116717e-01) (18, -2.60208016106582493143e-02) (19, 1.51449830215328706817e-01) (20, -4.56755650826654452379e-02) (21, 5.17012146532211253058e-02) (22, -2.38851033008533018831e-02) (23, 2.35732264605345506747e-02) (24, 3.99464303097783579588e-01) (25, -1.31504443275824600690e+00) (26, -1.14348443382987330352e+00) (27, 5.90100145263665276651e-01) (28, 2.76472304632697951643e-01) (29, -1.15559130779851892967e+00) (30, 3.62074959114804861837e-01) (31, -4.20925616137310165676e-01) (32, -9.13912044346114615934e-02) (33, -1.89574178077724586622e-01) (34, -7.33994172939841094117e-02) (35, -4.12976745954355684010e-01) (36, -7.64696039881139988381e+00) (0, 1.21005165049288532231e+00) (1, -5.40233085165364931846e-02) (2, 1.57983567298296073700e-01) (3, 1.92993129199555140015e-03) (4, -3.11631378257920636787e-02) (5, 7.99171684291799522271e-02) (6, -3.43220986846168654716e-02) (7, 3.82096749814849617755e-02) (8, 4.83286971566311840398e-02) (9, -6.55175507369834542182e-02) (10, 4.68617254028071902883e-02) (11, 1.59576854187465887180e-02) (12, 7.76743931419200506205e-01) (13, 1.23318103177441823481e-01) (14, -7.44363666576111915330e-02) (15, 4.07622765000595910223e-02) (16, 4.36096703469554328181e-02) (17, -4.19804659176833613876e-02) (18, 5.15090786174405845799e-02) (19, -2.24285500196149990837e-02) (20, 5.19037391459349108092e-03) (21, 2.70933744849356610007e-02) (22, -1.63963109874266203814e-02) (23, 1.71050828182078944184e-02) (24, 1.28495247022888769983e+00) (25, 2.11387601624220544672e-01) (26, 1.10228636670356601457e-02) (27, -5.76014492330267427467e-02) (28, -5.74915307416392074025e-02) (29, 2.34837595560800915795e-01) (30, -1.72537843334855028887e-01) (31, 9.33619102130345268620e-02) (32, 1.17422859817826102935e-01) (33, -1.78317179154640292893e-01) (34, 1.95348812538011923357e-01) (35, -5.66142688279531458573e-02) (36, -1.21858280598478856405e+01) (0, 3.53114295603684125169e-01) (1, -2.30939128553343447914e-01) (2, 5.45639292943714049322e-01) (3, -1.19366900012286469845e+00) (4, -6.07902306665306091382e-02) (5, -2.98738103977278408874e-02) (6, 9.64014324864784222235e-02) (7, 3.96178809027817435684e-01) (8, -1.84589270559951668105e-01) (9, -2.05773317927032073360e-01) (10, -3.93263814993973837009e-01) (11, -2.16610680644645503534e-01) (12, -1.97787934392475173162e+00) (13, -7.10923397745252594326e-01) (14, -4.39493950456136983629e-01) (15, 2.25626352726591261622e-01) (16, -1.73465334797894943364e-01) (17, -2.16535967649871624596e-01) (18, -7.57718357536473346991e-02) (19, -1.19321111913431310292e-01) (20, -7.14603344917576349671e-02) (21, 6.62544061010103546572e-02) (22, -1.30503319188417898911e-01) (23, -2.67914755932201986699e-01) (24, 1.16354280207400861968e+00) (25, -2.50917977880919229605e+00) (26, 2.10704198953378485371e+00) (27, -2.76564733706725496276e+00) (28, 8.58958696853917902381e-01) (29, 4.02545448569570196717e-01) (30, -1.12014746808326029481e-01) (31, 5.19829037978285612986e-01) (32, 2.59613819041914162256e-01) (33, -7.80661933463636326103e-01) (34, -5.17744902371918280792e-01) (35, -9.15850538619448650834e-01) (36, -1.39323119101178800605e+01) (0, 8.54026754147008348994e-01) (1, 1.80290586781357980994e-01) (2, 6.45933213270626915836e-01) (3, -9.92123125402939787243e-01) (4, -8.93534395416175852844e-01) (5, 3.95915440349715097579e-01) (6, -1.68355933825234588275e-01) (7, -5.80377344658207440682e-04) (8, -2.75613848326673682720e-01) (9, 7.22596633630995799358e-01) (10, 8.26650566668382935642e-02) (11, 1.65133053972177978874e-01) (12, 1.82134557629760962527e+00) (13, -4.36830115758462672604e-02) (14, 2.73364978914892864381e-01) (15, -4.72712775898861126134e-02) (16, -9.12200225090141619821e-02) (17, 1.44936579720811031802e-01) (18, -1.08368136180722381828e-02) (19, 2.29898995825702293083e-02) (20, -8.81255099799533279936e-04) (21, -3.56319138326173035294e-03) (22, 2.24869224615059405681e-02) (23, -1.09450108631987930684e-05) (24, -1.37784515232634752202e+00) (25, -1.26624608808065253207e-01) (26, 1.12715762739267688630e+00) (27, -1.01540390293110860398e+00) (28, -1.37699106320553688043e+00) (29, 3.65066420906459299101e-01) (30, 6.10697442953621605355e-02) (31, 9.91264538527686020486e-03) (32, -5.56859211565412626221e-01) (33, 9.23813757666144708125e-01) (34, -1.12002718715327343607e-02) (35, 4.54690108619147159708e-01) (36, -1.25289347040844645242e+00) (37, 9.32500398615155101645e-01) (38, -2.12505385361264537147e-01) (39, 9.76526387565404663249e-01) (40, 6.93107540475536154645e+00) (41, 7.89983758556407567042e-01) (42, 8.23084954716062910940e-01) (43, -8.58278229591551644617e-01) 
