FANN_FLO_2.1
num_layers=3
learning_rate=0.010000
connection_rate=1.000000
network_type=0
learning_momentum=0.000000
training_algorithm=2
train_error_function=1
train_stop_function=0
cascade_output_change_fraction=0.010000
quickprop_decay=-0.000100
quickprop_mu=1.750000
rprop_increase_factor=1.200000
rprop_decrease_factor=0.500000
rprop_delta_min=0.000000
rprop_delta_max=50.000000
rprop_delta_zero=0.100000
cascade_output_stagnation_epochs=12
cascade_candidate_change_fraction=0.010000
cascade_candidate_stagnation_epochs=12
cascade_max_out_epochs=150
cascade_max_cand_epochs=150
cascade_num_candidate_groups=2
bit_fail_limit=3.49999999999999977796e-01
cascade_candidate_limit=1.00000000000000000000e+03
cascade_weight_multiplier=4.00000000000000022204e-01
cascade_activation_functions_count=10
cascade_activation_functions=3 5 7 8 10 11 14 15 16 17 
cascade_activation_steepnesses_count=4
cascade_activation_steepnesses=2.50000000000000000000e-01 5.00000000000000000000e-01 7.50000000000000000000e-01 1.00000000000000000000e+00 
layer_sizes=27 7 2 
scale_included=0
neurons (num_inputs, activation_function, activation_steepness)=(0, 0, 0.00000000000000000000e+00) (0, 0, 0.00000000000000000000e+00) (0, 0, 0.00000000000000000000e+00) (0, 0, 0.00000000000000000000e+00) (0, 0, 0.00000000000000000000e+00) (0, 0, 0.00000000000000000000e+00) (0, 0, 0.00000000000000000000e+00) (0, 0, 0.00000000000000000000e+00) (0, 0, 0.00000000000000000000e+00) (0, 0, 0.00000000000000000000e+00) (0, 0, 0.00000000000000000000e+00) (0, 0, 0.00000000000000000000e+00) (0, 0, 0.00000000000000000000e+00) (0, 0, 0.00000000000000000000e+00) (0, 0, 0.00000000000000000000e+00) (0, 0, 0.00000000000000000000e+00) (0, 0, 0.00000000000000000000e+00) (0, 0, 0.00000000000000000000e+00) (0, 0, 0.00000000000000000000e+00) (0, 0, 0.00000000000000000000e+00) (0, 0, 0.00000000000000000000e+00) (0, 0, 0.00000000000000000000e+00) (0, 0, 0.00000000000000000000e+00) (0, 0, 0.00000000000000000000e+00) (0, 0, 0.00000000000000000000e+00) (0, 0, 0.00000000000000000000e+00) (0, 0, 0.00000000000000000000e+00) (27, 4, 5.00000000000000000000e-01) (27, 4, 5.00000000000000000000e-01) (27, 4, 5.00000000000000000000e-01) (27, 4, 5.00000000000000000000e-01) (27, 4, 5.00000000000000000000e-01) (27, 4, 5.00000000000000000000e-01) (0, 0, 0.00000000000000000000e+00) (7, 6, 5.00000000000000000000e-01) (0, 6, 0.00000000000000000000e+00) 
connections (connected_to_neuron, weight)=(0, 7.97328352024109898721e-01) (1, -2.10067028760221735650e-02) (2, 9.67889758165000474444e-02) (3, -1.56754980835410090423e-01) (4, 1.45906204034020638149e-02) (5, -4.29177230353477295877e-02) (6, 5.45724978215930550673e-02) (7, -5.29894675111308097182e-02) (8, 2.29214947257232182221e-02) (9, -3.08408315700270663218e-02) (10, -5.87672341006294923771e-02) (11, -2.46178791379295519581e-02) (12, 2.52119298581290791905e-02) (13, 1.37295137626430130418e+00) (14, 7.09219540247979507441e-02) (15, 7.16081086985371627514e-04) (16, 3.82871840327535378767e-02) (17, -8.84541642716139830949e-03) (18, -7.05153474119659014197e-03) (19, -1.44313619439084984269e-02) (20, 1.85957593632574288110e-03) (21, -1.87994315482306779963e-02) (22, -2.49286089413626541639e-03) (23, -9.11000637052035780461e-03) (24, 2.60084488492035980495e-03) (25, 2.49195480375479644364e-03) (26, -2.85502936313184019212e+00) (0, 1.50000000000000000000e+03) (1, -1.50000000000000000000e+03) (2, 1.50000000000000000000e+03) (3, 1.50000000000000000000e+03) (4, -1.50000000000000000000e+03) (5, 1.50000000000000000000e+03) (6, 1.50000000000000000000e+03) (7, 4.18666102964062304181e+02) (8, 1.50000000000000000000e+03) (9, -1.50000000000000000000e+03) (10, -1.50000000000000000000e+03) (11, -1.50000000000000000000e+03) (12, 1.50000000000000000000e+03) (13, 1.50000000000000000000e+03) (14, 1.50000000000000000000e+03) (15, 1.32948192470040197577e+02) (16, -1.50000000000000000000e+03) (17, 1.50000000000000000000e+03) (18, 1.50000000000000000000e+03) (19, -1.59621554088963307549e+02) (20, 8.27111641955770693357e+00) (21, 1.02153262236955720255e+03) (22, -1.50000000000000000000e+03) (23, -1.50000000000000000000e+03) (24, -1.90754019399003418300e+01) (25, -9.40853949076508683902e+02) (26, -4.49364348789836256515e+01) (0, -1.50000000000000000000e+03) (1, 1.50000000000000000000e+03) (2, -1.50000000000000000000e+03) (3, -1.50000000000000000000e+03) (4, 1.50000000000000000000e+03) (5, -1.50000000000000000000e+03) (6, -1.50000000000000000000e+03) (7, 1.50000000000000000000e+03) (8, -1.50000000000000000000e+03) (9, 1.50000000000000000000e+03) (10, 1.50000000000000000000e+03) (11, 1.50000000000000000000e+03) (12, -1.50000000000000000000e+03) (13, -1.50000000000000000000e+03) (14, -1.50000000000000000000e+03) (15, -1.45209868591872123034e+03) (16, 1.50000000000000000000e+03) (17, -1.50000000000000000000e+03) (18, -1.50000000000000000000e+03) (19, 6.52820158143098865366e+02) (20, -1.50000000000000000000e+03) (21, -1.43312459365176164283e+03) (22, 1.50000000000000000000e+03) (23, 1.50000000000000000000e+03) (24, -1.43740795139668330194e+03) (25, 1.48637443756379343540e+03) (26, 3.07285981581293610176e-01) (0, -1.56999192494374106843e+00) (1, 3.44776798502431924831e-02) (2, -5.55234962896820616329e-01) (3, 6.98914805852912796036e-02) (4, 8.00655623428671719966e-02) (5, 1.79880406421604049916e-01) (6, 1.98608389962459559730e-02) (7, -4.01315802859232503841e-02) (8, -3.11520526000228052677e-02) (9, -6.66261794473832491548e-02) (10, 5.79584208941248332780e-03) (11, 4.85001915970567631931e-02) (12, 3.23152606268297462599e-02) (13, -1.23665972370523991053e+00) (14, -1.72600111079782903012e-01) (15, 2.29280383723542077745e-02) (16, 3.89451768475007342740e-02) (17, -3.90997377194094580810e-02) (18, 3.90614737152638336060e-02) (19, -2.99765080406382417033e-02) (20, 2.74018032758086282907e-02) (21, 2.17101400438055730513e-03) (22, -1.20703452016530736988e-03) (23, -7.48410170797790628289e-03) (24, 2.50729304615576829157e-03) (25, -3.23518685257447036197e-02) (26, -6.76311770189957162103e+00) (0, -2.81801853612757113865e+00) (1, 9.45218861563083212474e-01) (2, -4.47962009566464702814e-01) (3, -1.78159140609858088200e-02) (4, 8.69471702662420881103e-02) (5, -1.15474508237239412156e-01) (6, -2.37116345361146757531e-01) (7, 1.52177132440702411742e-01) (8, -7.24850346325851130347e-02) (9, 1.47852896788010446105e-01) (10, -1.15058639304831997197e-01) (11, 1.61550485806853744153e-01) (12, -1.37116596559510250941e-01) (13, 5.77484908287904330493e-01) (14, 3.60782843720285489875e-02) (15, -1.98038480059827964874e-02) (16, -6.13863183338509560416e-02) (17, 9.72637454366298212505e-03) (18, -1.04402143553309258855e-02) (19, 1.38395081682893082015e-02) (20, -2.04455094499600142921e-02) (21, -2.42951948108695893469e-02) (22, 3.80771665359804570294e-02) (23, 2.50988302789582444496e-02) (24, -1.48239022312057714542e-02) (25, 2.67309384296339075382e-02) (26, -3.02195500406331118981e+00) (0, -1.50000000000000000000e+03) (1, 1.50000000000000000000e+03) (2, -1.50000000000000000000e+03) (3, -1.50000000000000000000e+03) (4, 1.50000000000000000000e+03) (5, -1.50000000000000000000e+03) (6, -1.50000000000000000000e+03) (7, -1.23105196228688623705e+03) (8, -1.50000000000000000000e+03) (9, 1.50000000000000000000e+03) (10, 1.50000000000000000000e+03) (11, 1.50000000000000000000e+03) (12, -1.50000000000000000000e+03) (13, -1.50000000000000000000e+03) (14, -1.50000000000000000000e+03) (15, -5.29956542810370933694e+02) (16, 1.50000000000000000000e+03) (17, -1.50000000000000000000e+03) (18, -1.50000000000000000000e+03) (19, -5.71805763195792735587e+01) (20, -1.00824067098329805958e+03) (21, -8.85494855469602043740e+02) (22, 1.50000000000000000000e+03) (23, 1.50000000000000000000e+03) (24, -6.68499036188200648212e+02) (25, -3.10081036622476290177e+02) (26, 1.26201478386113853958e+03) (27, 4.22986978373061273118e+00) (28, 3.74942543785642470877e-02) (29, -2.29376058089218520450e-03) (30, 1.64719957402151395698e+00) (31, 8.23062512933215750799e-01) (32, -9.27265429613692987454e-02) (33, 2.36344398585579151817e-01) 
